{
    "weights": {
        "Gryffindor": [
            0.8796413800555049,
            -1.607577012151306,
            -1.0141239475142256,
            0.5068432549110725,
            -0.4429281188999125,
            1.4317244766843438,
            -2.069824289359439,
            -2.279594557155759,
            -0.849091734011015,
            -1.2564168994048712,
            1.9465658509950763
        ],
        "Hufflepuff": [
            1.8761158302682985,
            2.0209599110021395,
            -2.8156220739145894,
            0.7377784777363017,
            -1.4627226118146257,
            -2.6897044660132354,
            0.978303167930325,
            1.0081322246377145,
            -0.9763700792472101,
            -0.1717244059640683,
            -1.4373406263103188
        ],
        "Ravenclaw": [
            -3.100825643822236,
            0.8268497448127649,
            0.7345945127200577,
            0.11757771922096387,
            2.24132969163721,
            1.3543797000801574,
            -0.6308355457920617,
            -0.7117704039076033,
            -1.031753221587483,
            2.389864109170705,
            -1.2078643455069507
        ],
        "Slytherin": [
            -1.5785080969828076,
            -1.717093590360118,
            1.6939083745711898,
            -2.627980688279777,
            -0.7905981458518172,
            -1.228123487207351,
            0.5563447245913109,
            0.6816360700923546,
            1.2457215831381059,
            -1.207762681917878,
            -1.1322862225951775
        ]
    },
    "biases": {
        "Gryffindor": [
            0.6272057350378977
        ],
        "Hufflepuff": [
            -0.24125261852742513
        ],
        "Ravenclaw": [
            -1.4191247283123087
        ],
        "Slytherin": [
            0.7023249588468041
        ]
    },
    "min_values": [
        -966.7405456412164,
        -10.295662748653244,
        -10.16211940387396,
        -8.727,
        -1086.4968348887985,
        283.8696087336624,
        -8.858992991610515,
        906.6273196915248,
        -4.697483767872527,
        -261.04892,
        -181.47
    ],
    "max_values": [
        1016.211940387396,
        11.612895082210851,
        9.667405456412162,
        10.032,
        1092.3886105728684,
        745.3962198761234,
        11.889712754042709,
        1098.9582005409077,
        13.53676212499442,
        -225.42814,
        279.07
    ]
}